svm_type c_svc
kernel_type linear
nr_class 2
total_sv 5
rho -16.21090740700252
label -1 1
nr_sv 3 2
SV
21.534006361118976 1:1.0 2:3.677365438182202 3:0.0 
46.481838426626204 1:0.7500553140438568 2:0.8831106011003769 3:0.613794414351428 
100.0 1:0.6453358572339203 2:1.0402705447891836 3:0.6263068554023231 
-100.0 1:0.7675257826784363 2:1.3753296044338037 3:0.6100966234776064 
-68.01584478774521 1:0.7107101429346936 2:1.3193395042561555 3:0.6693297040791699 
